3.004759084433317184e-03 2.259420230984687805e-02
5.681534763425588608e-03 2.034401259152218699e-04
-2.190257655456662178e-03 2.387042343616485596e-02
-6.932874384801834822e-05 -1.301349140703678131e-02
-7.862835377454757690e-02 1.430066209286451340e-02
9.986937046051025391e-02 -1.735180732794106007e-03
2.402895130217075348e-02 -6.696207914501428604e-03
-3.569044917821884155e-02 -1.132444106042385101e-02
1.154105886816978455e-01 -2.411003038287162781e-02
-4.306335374712944031e-02 3.896386548876762390e-02
1.807868713513016701e-03 -2.993895299732685089e-02
3.389273583889007568e-02 -1.325093558989465237e-03
1.974560618400573730e-01 -5.887163802981376648e-02
2.507341653108596802e-02 2.127434313297271729e-02
-3.620167821645736694e-02 2.579611027613282204e-03
5.024205893278121948e-02 7.484054565429687500e-02
-1.014485731720924377e-01 -1.461591422557830811e-01
-3.410840332508087158e-01 -4.565516952425241470e-03
3.430962860584259033e-01 1.730733178555965424e-02
9.862112998962402344e-02 1.838411986827850342e-01
-7.901102304458618164e-02 -6.021796260029077530e-03
2.324726283550262451e-01 -7.899443805217742920e-02
4.650947824120521545e-02 6.332699558697640896e-04
4.697197303175926208e-02 1.380241364240646362e-01
-6.133302301168441772e-02 1.422607619315385818e-02
3.446396440267562866e-02 2.175145410001277924e-02
-2.606176957488059998e-02 -1.350125763565301895e-02
-7.362740486860275269e-02 -3.799758478999137878e-02
-7.034346461296081543e-02 -2.332790195941925049e-02
-2.077672481536865234e-01 4.210383072495460510e-02
1.686874181032180786e-01 -2.539313398301601410e-02
2.850220911204814911e-02 -4.258762672543525696e-02
-9.562041610479354858e-02 5.156401172280311584e-02
-4.138776287436485291e-02 -9.327377378940582275e-02
-1.402555555105209351e-01 2.585829980671405792e-02
-9.811580181121826172e-02 -3.203086555004119873e-02
-3.963907808065414429e-02 -1.482975296676158905e-02
-8.851052075624465942e-02 -4.391378536820411682e-02
-2.731730602681636810e-02 -4.174645245075225830e-02
-9.976164996623992920e-02 -5.153086036443710327e-02
-4.116220772266387939e-02 1.600349992513656616e-01
3.431061506271362305e-01 -1.383504867553710938e-01
-9.691701829433441162e-02 2.436729967594146729e-01
1.386413127183914185e-01 1.112824380397796631e-01
2.513819634914398193e-01 2.151042520999908447e-01
-1.283123493194580078e-01 1.089630369096994400e-02
-2.121266163885593414e-02 3.658876717090606689e-01
1.270469874143600464e-01 1.911213845014572144e-01
-2.307873032987117767e-02 2.707421407103538513e-02
-1.459363382309675217e-02 -1.872575469315052032e-02
-8.113308809697628021e-03 -7.896137237548828125e-02
-3.542475402355194092e-02 -1.101691201329231262e-01
2.953582406044006348e-01 -6.493568420410156250e-01
-3.480923175811767578e-01 3.223953247070312500e-01
