2.959634537206757288e-01 1.092377240308411018e-01
1.161404541771935417e-01 -1.217466296664942854e-01
-2.246224829357123809e-01 -1.682276386901815357e-01
-1.470644978704587214e-01 3.947326831183127771e-01
1.405526719536460134e-01 3.678372577630876217e-01
-1.766631346547168080e-01 -1.566203032593653510e-01
3.080058991426812276e-01 1.813661865248517580e-01
-1.240422430107720048e-01 2.168884612977829973e-01
-1.303785914516010225e-01 -3.493488250892313740e-01
-2.591117697683322230e-01 -1.539379941121773732e-01
1.631641610517623742e-01 1.614348734068158375e-01
2.295117390628208520e-01 2.106203951047114498e-01
2.428976388958072608e-01 8.151435261617054340e-02
-3.170492719117354308e-02 -6.573732822148904698e-02
2.944524098862835726e-02 3.339443626875351206e-03
4.186301345630254883e-02 3.935968159407259178e-04
3.507589328845617943e-02 2.843565867681002723e-03
3.225460332178885225e-02 2.395531955354900881e-03
4.067986559104200261e-02 2.953956955656689403e-03
2.975146361605374851e-02 1.898155513514079244e-03
-8.275386309795315642e-02 1.389943688116472217e-02
-3.642834544396946622e-02 5.951095242110310962e-03
-2.655515046835494122e-02 -2.605367207713364316e-02
-3.213391895404303644e-02 1.087569680984829500e-02
-1.673571114708799767e-01 1.284577461639453688e-01
2.343763939186311041e-01 -1.798478561021145394e-01
2.632927260822714999e-01 -2.133039215205248806e-01
-5.110181602790288269e-02 1.214964658868495917e-01
-1.403843792795917977e-01 1.207938256854056980e-01
4.143080843024242454e-02 -3.006367218487114926e-02
6.704845624324973219e-02 -6.921406185857768845e-02
4.392890125663899414e-02 -4.276944955441150387e-02
6.313714056049218870e-02 -7.047581853605321134e-02
-2.587083081342715363e-01 1.162917820656777096e-01
-1.296702525166439635e-01 2.842011658413316419e-02
2.002506966037495041e-03 1.487542449710102521e-01
4.247945668384765089e-02 -8.498648313923544417e-02
1.533919410588912569e-01 3.436309434285285402e-02
-1.334101418802472183e-01 5.649912021402433981e-02
-1.373074129270665245e-01 3.314052884487938416e-02
-9.280946162687067624e-02 1.035430033348861550e-01
-6.287331141152023573e-02 3.889229692751068330e-04
-8.829573208012886365e-02 3.880852219880727893e-05
6.686822780822096468e-02 -2.263554077570306168e-03
5.770796376859880367e-02 -2.772231303709602607e-03
6.479083217299691499e-02 -4.605009944465603827e-02
6.093159915054315034e-02 3.100437611175638902e-02
-8.821672126931867641e-02 3.883556129944638891e-02
1.537837930438057388e-01 -2.234549384407568950e-01
1.463123197273737963e-01 -2.624756640838946109e-01
5.216980336588830126e-03 -2.569385976309615863e-02
3.066426745234987483e-02 -3.143580643390398582e-02
2.819167020915807134e-02 -2.574839842418764728e-03
4.136192731922598564e-02 -4.783022708281509452e-03
